digraph Tree {
node [shape=box] ;
0 [label="X[12] <= 0.011\ngini = 0.8\nsamples = 600\nvalue = [120, 120, 120, 120, 120]"] ;
1 [label="X[22] <= 0.009\ngini = 0.609\nsamples = 202\nvalue = [115, 2, 20, 43, 22]"] ;
0 -> 1 [labeldistance=2.5, labelangle=45, headlabel="True"] ;
2 [label="X[14] <= 0.036\ngini = 0.411\nsamples = 46\nvalue = [9, 0, 0, 34, 3]"] ;
1 -> 2 ;
3 [label="X[21] <= 0.472\ngini = 0.149\nsamples = 37\nvalue = [0, 0, 0, 34, 3]"] ;
2 -> 3 ;
4 [label="gini = 0.0\nsamples = 34\nvalue = [0, 0, 0, 34, 0]"] ;
3 -> 4 ;
5 [label="gini = 0.0\nsamples = 3\nvalue = [0, 0, 0, 0, 3]"] ;
3 -> 5 ;
6 [label="gini = 0.0\nsamples = 9\nvalue = [9, 0, 0, 0, 0]"] ;
2 -> 6 ;
7 [label="X[5] <= 0.492\ngini = 0.504\nsamples = 156\nvalue = [106, 2, 20, 9, 19]"] ;
1 -> 7 ;
8 [label="X[17] <= 0.001\ngini = 0.302\nsamples = 128\nvalue = [106, 0, 11, 9, 2]"] ;
7 -> 8 ;
9 [label="X[1] <= 0.851\ngini = 0.581\nsamples = 49\nvalue = [29, 0, 9, 9, 2]"] ;
8 -> 9 ;
10 [label="X[19] <= 0.007\ngini = 0.684\nsamples = 24\nvalue = [4, 0, 9, 9, 2]"] ;
9 -> 10 ;
11 [label="X[13] <= 0.062\ngini = 0.514\nsamples = 12\nvalue = [1, 0, 1, 8, 2]"] ;
10 -> 11 ;
12 [label="X[0] <= 0.086\ngini = 0.198\nsamples = 9\nvalue = [0, 0, 1, 8, 0]"] ;
11 -> 12 ;
13 [label="gini = 0.0\nsamples = 1\nvalue = [0, 0, 1, 0, 0]"] ;
12 -> 13 ;
14 [label="gini = 0.0\nsamples = 8\nvalue = [0, 0, 0, 8, 0]"] ;
12 -> 14 ;
15 [label="X[16] <= 0.001\ngini = 0.444\nsamples = 3\nvalue = [1, 0, 0, 0, 2]"] ;
11 -> 15 ;
16 [label="gini = 0.0\nsamples = 1\nvalue = [1, 0, 0, 0, 0]"] ;
15 -> 16 ;
17 [label="gini = 0.0\nsamples = 2\nvalue = [0, 0, 0, 0, 2]"] ;
15 -> 17 ;
18 [label="X[0] <= 0.083\ngini = 0.486\nsamples = 12\nvalue = [3, 0, 8, 1, 0]"] ;
10 -> 18 ;
19 [label="gini = 0.0\nsamples = 3\nvalue = [3, 0, 0, 0, 0]"] ;
18 -> 19 ;
20 [label="X[21] <= 0.453\ngini = 0.198\nsamples = 9\nvalue = [0, 0, 8, 1, 0]"] ;
18 -> 20 ;
21 [label="gini = 0.0\nsamples = 8\nvalue = [0, 0, 8, 0, 0]"] ;
20 -> 21 ;
22 [label="gini = 0.0\nsamples = 1\nvalue = [0, 0, 0, 1, 0]"] ;
20 -> 22 ;
23 [label="gini = 0.0\nsamples = 25\nvalue = [25, 0, 0, 0, 0]"] ;
9 -> 23 ;
24 [label="X[9] <= 0.23\ngini = 0.049\nsamples = 79\nvalue = [77, 0, 2, 0, 0]"] ;
8 -> 24 ;
25 [label="gini = 0.0\nsamples = 2\nvalue = [0, 0, 2, 0, 0]"] ;
24 -> 25 ;
26 [label="gini = 0.0\nsamples = 77\nvalue = [77, 0, 0, 0, 0]"] ;
24 -> 26 ;
27 [label="X[9] <= 0.3\ngini = 0.523\nsamples = 28\nvalue = [0, 2, 9, 0, 17]"] ;
7 -> 27 ;
28 [label="X[22] <= 0.016\ngini = 0.494\nsamples = 9\nvalue = [0, 1, 6, 0, 2]"] ;
27 -> 28 ;
29 [label="gini = 0.0\nsamples = 2\nvalue = [0, 0, 0, 0, 2]"] ;
28 -> 29 ;
30 [label="X[9] <= 0.296\ngini = 0.245\nsamples = 7\nvalue = [0, 1, 6, 0, 0]"] ;
28 -> 30 ;
31 [label="gini = 0.0\nsamples = 6\nvalue = [0, 0, 6, 0, 0]"] ;
30 -> 31 ;
32 [label="gini = 0.0\nsamples = 1\nvalue = [0, 1, 0, 0, 0]"] ;
30 -> 32 ;
33 [label="X[12] <= 0.003\ngini = 0.349\nsamples = 19\nvalue = [0, 1, 3, 0, 15]"] ;
27 -> 33 ;
34 [label="X[19] <= 0.004\ngini = 0.5\nsamples = 6\nvalue = [0, 0, 3, 0, 3]"] ;
33 -> 34 ;
35 [label="gini = 0.0\nsamples = 3\nvalue = [0, 0, 0, 0, 3]"] ;
34 -> 35 ;
36 [label="gini = 0.0\nsamples = 3\nvalue = [0, 0, 3, 0, 0]"] ;
34 -> 36 ;
37 [label="X[1] <= 0.92\ngini = 0.142\nsamples = 13\nvalue = [0, 1, 0, 0, 12]"] ;
33 -> 37 ;
38 [label="gini = 0.0\nsamples = 11\nvalue = [0, 0, 0, 0, 11]"] ;
37 -> 38 ;
39 [label="X[4] <= 0.706\ngini = 0.5\nsamples = 2\nvalue = [0, 1, 0, 0, 1]"] ;
37 -> 39 ;
40 [label="gini = 0.0\nsamples = 1\nvalue = [0, 1, 0, 0, 0]"] ;
39 -> 40 ;
41 [label="gini = 0.0\nsamples = 1\nvalue = [0, 0, 0, 0, 1]"] ;
39 -> 41 ;
42 [label="X[15] <= 0.075\ngini = 0.751\nsamples = 398\nvalue = [5, 118, 100, 77, 98]"] ;
0 -> 42 [labeldistance=2.5, labelangle=-45, headlabel="False"] ;
43 [label="X[1] <= 0.649\ngini = 0.424\nsamples = 64\nvalue = [0, 10, 0, 7, 47]"] ;
42 -> 43 ;
44 [label="X[12] <= 0.539\ngini = 0.114\nsamples = 33\nvalue = [0, 0, 0, 2, 31]"] ;
43 -> 44 ;
45 [label="gini = 0.0\nsamples = 27\nvalue = [0, 0, 0, 0, 27]"] ;
44 -> 45 ;
46 [label="X[11] <= 0.475\ngini = 0.444\nsamples = 6\nvalue = [0, 0, 0, 2, 4]"] ;
44 -> 46 ;
47 [label="gini = 0.0\nsamples = 2\nvalue = [0, 0, 0, 2, 0]"] ;
46 -> 47 ;
48 [label="gini = 0.0\nsamples = 4\nvalue = [0, 0, 0, 0, 4]"] ;
46 -> 48 ;
49 [label="X[6] <= 0.408\ngini = 0.604\nsamples = 31\nvalue = [0, 10, 0, 5, 16]"] ;
43 -> 49 ;
50 [label="X[19] <= 0.02\ngini = 0.43\nsamples = 16\nvalue = [0, 0, 0, 5, 11]"] ;
49 -> 50 ;
51 [label="X[15] <= 0.055\ngini = 0.408\nsamples = 7\nvalue = [0, 0, 0, 5, 2]"] ;
50 -> 51 ;
52 [label="X[4] <= 0.149\ngini = 0.444\nsamples = 3\nvalue = [0, 0, 0, 1, 2]"] ;
51 -> 52 ;
53 [label="gini = 0.0\nsamples = 1\nvalue = [0, 0, 0, 1, 0]"] ;
52 -> 53 ;
54 [label="gini = 0.0\nsamples = 2\nvalue = [0, 0, 0, 0, 2]"] ;
52 -> 54 ;
55 [label="gini = 0.0\nsamples = 4\nvalue = [0, 0, 0, 4, 0]"] ;
51 -> 55 ;
56 [label="gini = 0.0\nsamples = 9\nvalue = [0, 0, 0, 0, 9]"] ;
50 -> 56 ;
57 [label="X[10] <= 0.572\ngini = 0.444\nsamples = 15\nvalue = [0, 10, 0, 0, 5]"] ;
49 -> 57 ;
58 [label="X[4] <= 0.282\ngini = 0.165\nsamples = 11\nvalue = [0, 10, 0, 0, 1]"] ;
57 -> 58 ;
59 [label="gini = 0.0\nsamples = 10\nvalue = [0, 10, 0, 0, 0]"] ;
58 -> 59 ;
60 [label="gini = 0.0\nsamples = 1\nvalue = [0, 0, 0, 0, 1]"] ;
58 -> 60 ;
61 [label="gini = 0.0\nsamples = 4\nvalue = [0, 0, 0, 0, 4]"] ;
57 -> 61 ;
62 [label="X[13] <= 0.532\ngini = 0.738\nsamples = 334\nvalue = [5, 108, 100, 70, 51]"] ;
42 -> 62 ;
63 [label="X[1] <= 0.752\ngini = 0.744\nsamples = 296\nvalue = [5, 70, 100, 70, 51]"] ;
62 -> 63 ;
64 [label="X[2] <= 0.343\ngini = 0.678\nsamples = 198\nvalue = [0, 52, 90, 17, 39]"] ;
63 -> 64 ;
65 [label="X[3] <= 0.676\ngini = 0.581\nsamples = 145\nvalue = [0, 49, 79, 6, 11]"] ;
64 -> 65 ;
66 [label="X[23] <= 0.045\ngini = 0.478\nsamples = 80\nvalue = [0, 7, 56, 6, 11]"] ;
65 -> 66 ;
67 [label="X[15] <= 0.11\ngini = 0.684\nsamples = 15\nvalue = [0, 3, 1, 6, 5]"] ;
66 -> 67 ;
68 [label="gini = 0.0\nsamples = 5\nvalue = [0, 0, 0, 5, 0]"] ;
67 -> 68 ;
69 [label="X[12] <= 0.052\ngini = 0.64\nsamples = 10\nvalue = [0, 3, 1, 1, 5]"] ;
67 -> 69 ;
70 [label="gini = 0.0\nsamples = 5\nvalue = [0, 0, 0, 0, 5]"] ;
69 -> 70 ;
71 [label="X[3] <= 0.644\ngini = 0.56\nsamples = 5\nvalue = [0, 3, 1, 1, 0]"] ;
69 -> 71 ;
72 [label="X[5] <= 0.351\ngini = 0.5\nsamples = 2\nvalue = [0, 0, 1, 1, 0]"] ;
71 -> 72 ;
73 [label="gini = 0.0\nsamples = 1\nvalue = [0, 0, 0, 1, 0]"] ;
72 -> 73 ;
74 [label="gini = 0.0\nsamples = 1\nvalue = [0, 0, 1, 0, 0]"] ;
72 -> 74 ;
75 [label="gini = 0.0\nsamples = 3\nvalue = [0, 3, 0, 0, 0]"] ;
71 -> 75 ;
76 [label="X[5] <= 0.307\ngini = 0.272\nsamples = 65\nvalue = [0, 4, 55, 0, 6]"] ;
66 -> 76 ;
77 [label="X[11] <= 0.156\ngini = 0.444\nsamples = 3\nvalue = [0, 1, 0, 0, 2]"] ;
76 -> 77 ;
78 [label="gini = 0.0\nsamples = 1\nvalue = [0, 1, 0, 0, 0]"] ;
77 -> 78 ;
79 [label="gini = 0.0\nsamples = 2\nvalue = [0, 0, 0, 0, 2]"] ;
77 -> 79 ;
80 [label="X[0] <= 0.579\ngini = 0.207\nsamples = 62\nvalue = [0, 3, 55, 0, 4]"] ;
76 -> 80 ;
81 [label="X[5] <= 0.469\ngini = 0.156\nsamples = 60\nvalue = [0, 2, 55, 0, 3]"] ;
80 -> 81 ;
82 [label="X[10] <= 0.258\ngini = 0.129\nsamples = 59\nvalue = [0, 2, 55, 0, 2]"] ;
81 -> 82 ;
83 [label="gini = 0.0\nsamples = 1\nvalue = [0, 0, 0, 0, 1]"] ;
82 -> 83 ;
84 [label="X[21] <= 0.332\ngini = 0.099\nsamples = 58\nvalue = [0, 2, 55, 0, 1]"] ;
82 -> 84 ;
85 [label="X[19] <= 0.07\ngini = 0.43\nsamples = 11\nvalue = [0, 2, 8, 0, 1]"] ;
84 -> 85 ;
86 [label="X[12] <= 0.109\ngini = 0.625\nsamples = 4\nvalue = [0, 2, 1, 0, 1]"] ;
85 -> 86 ;
87 [label="X[22] <= 0.087\ngini = 0.5\nsamples = 2\nvalue = [0, 0, 1, 0, 1]"] ;
86 -> 87 ;
88 [label="gini = 0.0\nsamples = 1\nvalue = [0, 0, 1, 0, 0]"] ;
87 -> 88 ;
89 [label="gini = 0.0\nsamples = 1\nvalue = [0, 0, 0, 0, 1]"] ;
87 -> 89 ;
90 [label="gini = 0.0\nsamples = 2\nvalue = [0, 2, 0, 0, 0]"] ;
86 -> 90 ;
91 [label="gini = 0.0\nsamples = 7\nvalue = [0, 0, 7, 0, 0]"] ;
85 -> 91 ;
92 [label="gini = 0.0\nsamples = 47\nvalue = [0, 0, 47, 0, 0]"] ;
84 -> 92 ;
93 [label="gini = 0.0\nsamples = 1\nvalue = [0, 0, 0, 0, 1]"] ;
81 -> 93 ;
94 [label="X[23] <= 0.162\ngini = 0.5\nsamples = 2\nvalue = [0, 1, 0, 0, 1]"] ;
80 -> 94 ;
95 [label="gini = 0.0\nsamples = 1\nvalue = [0, 0, 0, 0, 1]"] ;
94 -> 95 ;
96 [label="gini = 0.0\nsamples = 1\nvalue = [0, 1, 0, 0, 0]"] ;
94 -> 96 ;
97 [label="X[9] <= 0.3\ngini = 0.457\nsamples = 65\nvalue = [0, 42, 23, 0, 0]"] ;
65 -> 97 ;
98 [label="X[10] <= 0.393\ngini = 0.249\nsamples = 48\nvalue = [0, 41, 7, 0, 0]"] ;
97 -> 98 ;
99 [label="X[3] <= 0.689\ngini = 0.091\nsamples = 42\nvalue = [0, 40, 2, 0, 0]"] ;
98 -> 99 ;
100 [label="X[13] <= 0.289\ngini = 0.408\nsamples = 7\nvalue = [0, 5, 2, 0, 0]"] ;
99 -> 100 ;
101 [label="gini = 0.0\nsamples = 2\nvalue = [0, 0, 2, 0, 0]"] ;
100 -> 101 ;
102 [label="gini = 0.0\nsamples = 5\nvalue = [0, 5, 0, 0, 0]"] ;
100 -> 102 ;
103 [label="gini = 0.0\nsamples = 35\nvalue = [0, 35, 0, 0, 0]"] ;
99 -> 103 ;
104 [label="X[20] <= 0.235\ngini = 0.278\nsamples = 6\nvalue = [0, 1, 5, 0, 0]"] ;
98 -> 104 ;
105 [label="gini = 0.0\nsamples = 5\nvalue = [0, 0, 5, 0, 0]"] ;
104 -> 105 ;
106 [label="gini = 0.0\nsamples = 1\nvalue = [0, 1, 0, 0, 0]"] ;
104 -> 106 ;
107 [label="X[24] <= 0.124\ngini = 0.111\nsamples = 17\nvalue = [0, 1, 16, 0, 0]"] ;
97 -> 107 ;
108 [label="gini = 0.0\nsamples = 1\nvalue = [0, 1, 0, 0, 0]"] ;
107 -> 108 ;
109 [label="gini = 0.0\nsamples = 16\nvalue = [0, 0, 16, 0, 0]"] ;
107 -> 109 ;
110 [label="X[19] <= 0.074\ngini = 0.632\nsamples = 53\nvalue = [0, 3, 11, 11, 28]"] ;
64 -> 110 ;
111 [label="X[4] <= 0.619\ngini = 0.49\nsamples = 7\nvalue = [0, 3, 0, 4, 0]"] ;
110 -> 111 ;
112 [label="X[10] <= 0.545\ngini = 0.375\nsamples = 4\nvalue = [0, 3, 0, 1, 0]"] ;
111 -> 112 ;
113 [label="gini = 0.0\nsamples = 3\nvalue = [0, 3, 0, 0, 0]"] ;
112 -> 113 ;
114 [label="gini = 0.0\nsamples = 1\nvalue = [0, 0, 0, 1, 0]"] ;
112 -> 114 ;
115 [label="gini = 0.0\nsamples = 3\nvalue = [0, 0, 0, 3, 0]"] ;
111 -> 115 ;
116 [label="X[10] <= 0.59\ngini = 0.549\nsamples = 46\nvalue = [0, 0, 11, 7, 28]"] ;
110 -> 116 ;
117 [label="X[22] <= 0.259\ngini = 0.483\nsamples = 41\nvalue = [0, 0, 7, 6, 28]"] ;
116 -> 117 ;
118 [label="X[8] <= 0.507\ngini = 0.66\nsamples = 10\nvalue = [0, 0, 4, 3, 3]"] ;
117 -> 118 ;
119 [label="X[1] <= 0.699\ngini = 0.49\nsamples = 7\nvalue = [0, 0, 4, 0, 3]"] ;
118 -> 119 ;
120 [label="gini = 0.0\nsamples = 3\nvalue = [0, 0, 0, 0, 3]"] ;
119 -> 120 ;
121 [label="gini = 0.0\nsamples = 4\nvalue = [0, 0, 4, 0, 0]"] ;
119 -> 121 ;
122 [label="gini = 0.0\nsamples = 3\nvalue = [0, 0, 0, 3, 0]"] ;
118 -> 122 ;
123 [label="X[16] <= 0.268\ngini = 0.331\nsamples = 31\nvalue = [0, 0, 3, 3, 25]"] ;
117 -> 123 ;
124 [label="gini = 0.0\nsamples = 18\nvalue = [0, 0, 0, 0, 18]"] ;
123 -> 124 ;
125 [label="X[22] <= 0.429\ngini = 0.604\nsamples = 13\nvalue = [0, 0, 3, 3, 7]"] ;
123 -> 125 ;
126 [label="X[0] <= 0.687\ngini = 0.656\nsamples = 8\nvalue = [0, 0, 3, 3, 2]"] ;
125 -> 126 ;
127 [label="X[22] <= 0.374\ngini = 0.48\nsamples = 5\nvalue = [0, 0, 0, 3, 2]"] ;
126 -> 127 ;
128 [label="gini = 0.0\nsamples = 2\nvalue = [0, 0, 0, 0, 2]"] ;
127 -> 128 ;
129 [label="gini = 0.0\nsamples = 3\nvalue = [0, 0, 0, 3, 0]"] ;
127 -> 129 ;
130 [label="gini = 0.0\nsamples = 3\nvalue = [0, 0, 3, 0, 0]"] ;
126 -> 130 ;
131 [label="gini = 0.0\nsamples = 5\nvalue = [0, 0, 0, 0, 5]"] ;
125 -> 131 ;
132 [label="X[10] <= 0.777\ngini = 0.32\nsamples = 5\nvalue = [0, 0, 4, 1, 0]"] ;
116 -> 132 ;
133 [label="gini = 0.0\nsamples = 4\nvalue = [0, 0, 4, 0, 0]"] ;
132 -> 133 ;
134 [label="gini = 0.0\nsamples = 1\nvalue = [0, 0, 0, 1, 0]"] ;
132 -> 134 ;
135 [label="X[0] <= 0.544\ngini = 0.646\nsamples = 98\nvalue = [5, 18, 10, 53, 12]"] ;
63 -> 135 ;
136 [label="X[10] <= 0.333\ngini = 0.411\nsamples = 64\nvalue = [5, 0, 9, 48, 2]"] ;
135 -> 136 ;
137 [label="X[12] <= 0.018\ngini = 0.122\nsamples = 46\nvalue = [0, 0, 3, 43, 0]"] ;
136 -> 137 ;
138 [label="X[19] <= 0.012\ngini = 0.444\nsamples = 3\nvalue = [0, 0, 2, 1, 0]"] ;
137 -> 138 ;
139 [label="gini = 0.0\nsamples = 1\nvalue = [0, 0, 0, 1, 0]"] ;
138 -> 139 ;
140 [label="gini = 0.0\nsamples = 2\nvalue = [0, 0, 2, 0, 0]"] ;
138 -> 140 ;
141 [label="X[12] <= 0.037\ngini = 0.045\nsamples = 43\nvalue = [0, 0, 1, 42, 0]"] ;
137 -> 141 ;
142 [label="gini = 0.0\nsamples = 42\nvalue = [0, 0, 0, 42, 0]"] ;
141 -> 142 ;
143 [label="gini = 0.0\nsamples = 1\nvalue = [0, 0, 1, 0, 0]"] ;
141 -> 143 ;
144 [label="X[18] <= 0.003\ngini = 0.722\nsamples = 18\nvalue = [5, 0, 6, 5, 2]"] ;
136 -> 144 ;
145 [label="X[19] <= 0.007\ngini = 0.62\nsamples = 10\nvalue = [3, 0, 0, 5, 2]"] ;
144 -> 145 ;
146 [label="X[19] <= 0.003\ngini = 0.408\nsamples = 7\nvalue = [2, 0, 0, 5, 0]"] ;
145 -> 146 ;
147 [label="gini = 0.0\nsamples = 2\nvalue = [2, 0, 0, 0, 0]"] ;
146 -> 147 ;
148 [label="gini = 0.0\nsamples = 5\nvalue = [0, 0, 0, 5, 0]"] ;
146 -> 148 ;
149 [label="X[8] <= 0.106\ngini = 0.444\nsamples = 3\nvalue = [1, 0, 0, 0, 2]"] ;
145 -> 149 ;
150 [label="gini = 0.0\nsamples = 2\nvalue = [0, 0, 0, 0, 2]"] ;
149 -> 150 ;
151 [label="gini = 0.0\nsamples = 1\nvalue = [1, 0, 0, 0, 0]"] ;
149 -> 151 ;
152 [label="X[7] <= 0.026\ngini = 0.375\nsamples = 8\nvalue = [2, 0, 6, 0, 0]"] ;
144 -> 152 ;
153 [label="gini = 0.0\nsamples = 6\nvalue = [0, 0, 6, 0, 0]"] ;
152 -> 153 ;
154 [label="gini = 0.0\nsamples = 2\nvalue = [2, 0, 0, 0, 0]"] ;
152 -> 154 ;
155 [label="X[0] <= 0.623\ngini = 0.611\nsamples = 34\nvalue = [0, 18, 1, 5, 10]"] ;
135 -> 155 ;
156 [label="X[10] <= 0.442\ngini = 0.265\nsamples = 20\nvalue = [0, 17, 0, 2, 1]"] ;
155 -> 156 ;
157 [label="X[10] <= 0.239\ngini = 0.105\nsamples = 18\nvalue = [0, 17, 0, 1, 0]"] ;
156 -> 157 ;
158 [label="gini = 0.0\nsamples = 1\nvalue = [0, 0, 0, 1, 0]"] ;
157 -> 158 ;
159 [label="gini = 0.0\nsamples = 17\nvalue = [0, 17, 0, 0, 0]"] ;
157 -> 159 ;
160 [label="X[2] <= 0.18\ngini = 0.5\nsamples = 2\nvalue = [0, 0, 0, 1, 1]"] ;
156 -> 160 ;
161 [label="gini = 0.0\nsamples = 1\nvalue = [0, 0, 0, 0, 1]"] ;
160 -> 161 ;
162 [label="gini = 0.0\nsamples = 1\nvalue = [0, 0, 0, 1, 0]"] ;
160 -> 162 ;
163 [label="X[24] <= 0.033\ngini = 0.531\nsamples = 14\nvalue = [0, 1, 1, 3, 9]"] ;
155 -> 163 ;
164 [label="gini = 0.0\nsamples = 2\nvalue = [0, 0, 0, 2, 0]"] ;
163 -> 164 ;
165 [label="X[10] <= 0.495\ngini = 0.417\nsamples = 12\nvalue = [0, 1, 1, 1, 9]"] ;
163 -> 165 ;
166 [label="X[2] <= 0.282\ngini = 0.314\nsamples = 11\nvalue = [0, 1, 0, 1, 9]"] ;
165 -> 166 ;
167 [label="X[14] <= 0.104\ngini = 0.625\nsamples = 4\nvalue = [0, 1, 0, 1, 2]"] ;
166 -> 167 ;
168 [label="gini = 0.0\nsamples = 2\nvalue = [0, 0, 0, 0, 2]"] ;
167 -> 168 ;
169 [label="X[2] <= 0.245\ngini = 0.5\nsamples = 2\nvalue = [0, 1, 0, 1, 0]"] ;
167 -> 169 ;
170 [label="gini = 0.0\nsamples = 1\nvalue = [0, 1, 0, 0, 0]"] ;
169 -> 170 ;
171 [label="gini = 0.0\nsamples = 1\nvalue = [0, 0, 0, 1, 0]"] ;
169 -> 171 ;
172 [label="gini = 0.0\nsamples = 7\nvalue = [0, 0, 0, 0, 7]"] ;
166 -> 172 ;
173 [label="gini = 0.0\nsamples = 1\nvalue = [0, 0, 1, 0, 0]"] ;
165 -> 173 ;
174 [label="gini = 0.0\nsamples = 38\nvalue = [0, 38, 0, 0, 0]"] ;
62 -> 174 ;
}
